Language model created by QuickLM on Sun Apr 19 15:20:34 EDT 2020
Copyright (c) 1996-2010 Carnegie Mellon University and Alexander I. Rudnicky

The model is in standard ARPA format, designed by Doug Paul while he was at MITRE.

The code that was used to produce this language model is available in Open Source.
Please visit http://www.speech.cs.cmu.edu/tools/ for more information

The (fixed) discount mass is 0.5. The backoffs are computed using the ratio method.
This model based on a corpus of 78 sentences and 48 words

\data\
ngram 1=48
ngram 2=130
ngram 3=133

\1-grams:
-0.8728 </s> -0.3010
-0.8728 <s> -0.2017
-2.7649 A -0.2385
-1.9868 ALARM -0.2333
-2.7649 AM -0.2385
-2.7649 DOWN -0.2385
-2.0660 EIGHT -0.2385
-2.7649 EIGHTEEN -0.2385
-2.7649 ELEVEN -0.2385
-2.7649 FIFTEEN -0.2385
-1.7649 FIFTY -0.1970
-2.0660 FIVE -0.2385
-1.7649 FORTY -0.1970
-2.0660 FOUR -0.2385
-2.7649 FOURTEEN -0.2385
-2.7649 HUNDRED -0.2385
-2.4639 IS -0.2988
-2.7649 IT -0.2385
-2.4639 M -0.2385
-2.0660 NINE -0.2385
-2.7649 NINETEEN -0.2385
-2.7649 OFF -0.2385
-2.7649 OKAY -0.3003
-2.7649 ON -0.2385
-1.9868 ONE -0.2377
-2.7649 P -0.2385
-2.7649 PI -0.2385
-2.7649 PM -0.2385
-2.4639 RESET -0.2333
-2.4639 SET -0.2950
-2.0660 SEVEN -0.2385
-2.7649 SEVENTEEN -0.2385
-2.0660 SIX -0.2385
-2.7649 SIXTEEN -0.2385
-2.7649 TEN -0.2385
-2.4639 THE -0.2950
-2.7649 THIRTEEN -0.2385
-1.7649 THIRTY -0.1970
-2.0660 THREE -0.2385
-2.4639 TIME -0.2368
-2.4639 TO -0.2385
-2.7649 TWELVE -0.2385
-1.7649 TWENTY -0.1970
-2.0660 TWO -0.2385
-2.7649 UP -0.2385
-2.1629 VOLUME -0.2943
-2.4639 WHAT -0.2980
-2.7649 ZERO -0.2385

\2-grams:
-2.1931 <s> A 0.0000
-1.7160 <s> ALARM -0.1761
-2.1931 <s> AM 0.0000
-2.1931 <s> EIGHT 0.0000
-2.1931 <s> EIGHTEEN 0.0000
-2.1931 <s> ELEVEN 0.0000
-2.1931 <s> FIFTEEN 0.0000
-1.1931 <s> FIFTY 0.0000
-2.1931 <s> FIVE 0.0000
-1.1931 <s> FORTY 0.0000
-2.1931 <s> FOUR 0.0000
-2.1931 <s> FOURTEEN 0.0000
-1.8921 <s> M 0.0000
-2.1931 <s> NINE 0.0000
-2.1931 <s> NINETEEN 0.0000
-2.1931 <s> OKAY 0.0000
-2.1931 <s> ONE -0.0669
-2.1931 <s> P 0.0000
-2.1931 <s> PM 0.0000
-2.1931 <s> RESET -0.1761
-1.8921 <s> SET 0.0000
-2.1931 <s> SEVEN 0.0000
-2.1931 <s> SEVENTEEN 0.0000
-2.1931 <s> SIX 0.0000
-2.1931 <s> SIXTEEN 0.0000
-2.1931 <s> TEN 0.0000
-2.1931 <s> THIRTEEN 0.0000
-1.1931 <s> THIRTY 0.0000
-2.1931 <s> THREE 0.0000
-2.1931 <s> TWELVE 0.0000
-1.1931 <s> TWENTY 0.0000
-2.1931 <s> TWO 0.0000
-1.5911 <s> VOLUME 0.0000
-1.8921 <s> WHAT 0.0000
-0.3010 A </s> -0.3010
-1.0792 ALARM </s> -0.3010
-1.0792 ALARM OFF 0.0000
-1.0792 ALARM ON 0.0000
-1.0792 ALARM RESET -0.1761
-0.7782 ALARM TO 0.0000
-0.3010 AM </s> -0.3010
-0.3010 DOWN </s> -0.3010
-0.3010 EIGHT </s> -0.3010
-0.3010 EIGHTEEN </s> -0.3010
-0.3010 ELEVEN </s> -0.3010
-0.3010 FIFTEEN </s> -0.3010
-1.3010 FIFTY </s> -0.3010
-1.3010 FIFTY EIGHT 0.0000
-1.3010 FIFTY FIVE 0.0000
-1.3010 FIFTY FOUR 0.0000
-1.3010 FIFTY NINE 0.0000
-1.3010 FIFTY ONE -0.0669
-1.3010 FIFTY SEVEN 0.0000
-1.3010 FIFTY SIX 0.0000
-1.3010 FIFTY THREE 0.0000
-1.3010 FIFTY TWO 0.0000
-0.3010 FIVE </s> -0.3010
-1.3010 FORTY </s> -0.3010
-1.3010 FORTY EIGHT 0.0000
-1.3010 FORTY FIVE 0.0000
-1.3010 FORTY FOUR 0.0000
-1.3010 FORTY NINE 0.0000
-1.3010 FORTY ONE -0.0669
-1.3010 FORTY SEVEN 0.0000
-1.3010 FORTY SIX 0.0000
-1.3010 FORTY THREE 0.0000
-1.3010 FORTY TWO 0.0000
-0.3010 FOUR </s> -0.3010
-0.3010 FOURTEEN </s> -0.3010
-0.3010 HUNDRED </s> -0.3010
-0.6021 IS IT 0.0000
-0.6021 IS THE -0.1761
-0.3010 IT </s> -0.3010
-0.3010 M </s> -0.3010
-0.3010 NINE </s> -0.3010
-0.3010 NINETEEN </s> -0.3010
-0.3010 OFF </s> -0.3010
-0.3010 OKAY PI 0.0000
-0.3010 ON </s> -0.3010
-0.3802 ONE </s> -0.3010
-1.0792 ONE HUNDRED 0.0000
-0.3010 P </s> -0.3010
-0.3010 PI </s> -0.3010
-0.3010 PM </s> -0.3010
-0.6021 RESET </s> -0.3010
-0.6021 RESET ALARM -0.2632
-0.6021 SET ALARM -0.2218
-0.6021 SET THE -0.1761
-0.3010 SEVEN </s> -0.3010
-0.3010 SEVENTEEN </s> -0.3010
-0.3010 SIX </s> -0.3010
-0.3010 SIXTEEN </s> -0.3010
-0.3010 TEN </s> -0.3010
-0.6021 THE ALARM -0.2218
-0.6021 THE TIME -0.1761
-0.3010 THIRTEEN </s> -0.3010
-1.3010 THIRTY </s> -0.3010
-1.3010 THIRTY EIGHT 0.0000
-1.3010 THIRTY FIVE 0.0000
-1.3010 THIRTY FOUR 0.0000
-1.3010 THIRTY NINE 0.0000
-1.3010 THIRTY ONE -0.0669
-1.3010 THIRTY SEVEN 0.0000
-1.3010 THIRTY SIX 0.0000
-1.3010 THIRTY THREE 0.0000
-1.3010 THIRTY TWO 0.0000
-0.3010 THREE </s> -0.3010
-0.6021 TIME </s> -0.3010
-0.6021 TIME IS -0.1761
-0.3010 TO </s> -0.3010
-0.3010 TWELVE </s> -0.3010
-1.3010 TWENTY </s> -0.3010
-1.3010 TWENTY EIGHT 0.0000
-1.3010 TWENTY FIVE 0.0000
-1.3010 TWENTY FOUR 0.0000
-1.3010 TWENTY NINE 0.0000
-1.3010 TWENTY ONE -0.0669
-1.3010 TWENTY SEVEN 0.0000
-1.3010 TWENTY SIX 0.0000
-1.3010 TWENTY THREE 0.0000
-1.3010 TWENTY TWO 0.0000
-0.3010 TWO </s> -0.3010
-0.3010 UP </s> -0.3010
-0.9031 VOLUME DOWN 0.0000
-0.9031 VOLUME ONE -0.2632
-0.9031 VOLUME UP 0.0000
-0.9031 VOLUME ZERO 0.0000
-0.6021 WHAT IS -0.1761
-0.6021 WHAT TIME -0.1761
-0.3010 ZERO </s> -0.3010

\3-grams:
-0.3010 <s> A </s>
-0.7782 <s> ALARM OFF
-0.7782 <s> ALARM ON
-0.7782 <s> ALARM RESET
-0.3010 <s> AM </s>
-0.3010 <s> EIGHT </s>
-0.3010 <s> EIGHTEEN </s>
-0.3010 <s> ELEVEN </s>
-0.3010 <s> FIFTEEN </s>
-1.3010 <s> FIFTY </s>
-1.3010 <s> FIFTY EIGHT
-1.3010 <s> FIFTY FIVE
-1.3010 <s> FIFTY FOUR
-1.3010 <s> FIFTY NINE
-1.3010 <s> FIFTY ONE
-1.3010 <s> FIFTY SEVEN
-1.3010 <s> FIFTY SIX
-1.3010 <s> FIFTY THREE
-1.3010 <s> FIFTY TWO
-0.3010 <s> FIVE </s>
-1.3010 <s> FORTY </s>
-1.3010 <s> FORTY EIGHT
-1.3010 <s> FORTY FIVE
-1.3010 <s> FORTY FOUR
-1.3010 <s> FORTY NINE
-1.3010 <s> FORTY ONE
-1.3010 <s> FORTY SEVEN
-1.3010 <s> FORTY SIX
-1.3010 <s> FORTY THREE
-1.3010 <s> FORTY TWO
-0.3010 <s> FOUR </s>
-0.3010 <s> FOURTEEN </s>
-0.3010 <s> M </s>
-0.3010 <s> NINE </s>
-0.3010 <s> NINETEEN </s>
-0.3010 <s> OKAY PI
-0.3010 <s> ONE </s>
-0.3010 <s> P </s>
-0.3010 <s> PM </s>
-0.3010 <s> RESET ALARM
-0.6021 <s> SET ALARM
-0.6021 <s> SET THE
-0.3010 <s> SEVEN </s>
-0.3010 <s> SEVENTEEN </s>
-0.3010 <s> SIX </s>
-0.3010 <s> SIXTEEN </s>
-0.3010 <s> TEN </s>
-0.3010 <s> THIRTEEN </s>
-1.3010 <s> THIRTY </s>
-1.3010 <s> THIRTY EIGHT
-1.3010 <s> THIRTY FIVE
-1.3010 <s> THIRTY FOUR
-1.3010 <s> THIRTY NINE
-1.3010 <s> THIRTY ONE
-1.3010 <s> THIRTY SEVEN
-1.3010 <s> THIRTY SIX
-1.3010 <s> THIRTY THREE
-1.3010 <s> THIRTY TWO
-0.3010 <s> THREE </s>
-0.3010 <s> TWELVE </s>
-1.3010 <s> TWENTY </s>
-1.3010 <s> TWENTY EIGHT
-1.3010 <s> TWENTY FIVE
-1.3010 <s> TWENTY FOUR
-1.3010 <s> TWENTY NINE
-1.3010 <s> TWENTY ONE
-1.3010 <s> TWENTY SEVEN
-1.3010 <s> TWENTY SIX
-1.3010 <s> TWENTY THREE
-1.3010 <s> TWENTY TWO
-0.3010 <s> TWO </s>
-0.9031 <s> VOLUME DOWN
-0.9031 <s> VOLUME ONE
-0.9031 <s> VOLUME UP
-0.9031 <s> VOLUME ZERO
-0.6021 <s> WHAT IS
-0.6021 <s> WHAT TIME
-0.3010 ALARM OFF </s>
-0.3010 ALARM ON </s>
-0.3010 ALARM RESET </s>
-0.3010 ALARM TO </s>
-0.3010 FIFTY EIGHT </s>
-0.3010 FIFTY FIVE </s>
-0.3010 FIFTY FOUR </s>
-0.3010 FIFTY NINE </s>
-0.3010 FIFTY ONE </s>
-0.3010 FIFTY SEVEN </s>
-0.3010 FIFTY SIX </s>
-0.3010 FIFTY THREE </s>
-0.3010 FIFTY TWO </s>
-0.3010 FORTY EIGHT </s>
-0.3010 FORTY FIVE </s>
-0.3010 FORTY FOUR </s>
-0.3010 FORTY NINE </s>
-0.3010 FORTY ONE </s>
-0.3010 FORTY SEVEN </s>
-0.3010 FORTY SIX </s>
-0.3010 FORTY THREE </s>
-0.3010 FORTY TWO </s>
-0.3010 IS IT </s>
-0.3010 IS THE TIME
-0.3010 OKAY PI </s>
-0.3010 ONE HUNDRED </s>
-0.3010 RESET ALARM </s>
-0.3010 SET ALARM TO
-0.3010 SET THE ALARM
-0.3010 THE ALARM TO
-0.3010 THE TIME </s>
-0.3010 THIRTY EIGHT </s>
-0.3010 THIRTY FIVE </s>
-0.3010 THIRTY FOUR </s>
-0.3010 THIRTY NINE </s>
-0.3010 THIRTY ONE </s>
-0.3010 THIRTY SEVEN </s>
-0.3010 THIRTY SIX </s>
-0.3010 THIRTY THREE </s>
-0.3010 THIRTY TWO </s>
-0.3010 TIME IS IT
-0.3010 TWENTY EIGHT </s>
-0.3010 TWENTY FIVE </s>
-0.3010 TWENTY FOUR </s>
-0.3010 TWENTY NINE </s>
-0.3010 TWENTY ONE </s>
-0.3010 TWENTY SEVEN </s>
-0.3010 TWENTY SIX </s>
-0.3010 TWENTY THREE </s>
-0.3010 TWENTY TWO </s>
-0.3010 VOLUME DOWN </s>
-0.3010 VOLUME ONE HUNDRED
-0.3010 VOLUME UP </s>
-0.3010 VOLUME ZERO </s>
-0.3010 WHAT IS THE
-0.3010 WHAT TIME IS

\end\
